//Numpy array shape [5, 5, 1, 4]
//Min -0.578125000000
//Max 0.593750000000
//Number of zeros 3

#ifndef W3_H_
#define W3_H_

#ifndef __SYNTHESIS__
weight3_t w3[100];
#else
weight3_t w3[100] = {-0.390625, 0.187500, -0.218750, 0.015625, 0.046875, -0.281250, -0.312500, 0.046875, -0.437500, -0.437500, 0.062500, 0.281250, -0.359375, 0.312500, 0.375000, 0.312500, -0.468750, -0.218750, -0.406250, 0.000000, -0.484375, -0.421875, -0.046875, 0.234375, -0.421875, 0.140625, -0.375000, 0.140625, -0.390625, -0.187500, -0.359375, 0.140625, 0.062500, 0.140625, 0.250000, 0.296875, 0.234375, 0.281250, 0.250000, -0.265625, 0.093750, -0.281250, 0.390625, -0.265625, -0.250000, 0.281250, -0.390625, 0.437500, 0.125000, 0.531250, -0.062500, 0.578125, -0.015625, 0.000000, -0.062500, -0.031250, -0.109375, 0.031250, 0.046875, 0.531250, -0.171875, -0.031250, 0.015625, -0.031250, 0.406250, 0.562500, -0.062500, 0.468750, 0.000000, -0.140625, 0.281250, 0.390625, -0.093750, 0.453125, 0.421875, 0.125000, -0.343750, 0.078125, 0.281250, 0.187500, 0.484375, -0.265625, 0.296875, -0.234375, 0.593750, -0.015625, 0.265625, -0.140625, -0.203125, -0.093750, -0.234375, 0.015625, 0.484375, 0.078125, 0.203125, -0.296875, -0.578125, 0.171875, 0.109375, 0.171875};
#endif

#endif
