//Numpy array shape [32, 4]
//Min -1.984375000000
//Max 1.984375000000
//Number of zeros 2

#ifndef W16_H_
#define W16_H_

#ifndef __SYNTHESIS__
weight16_t w16[128];
#else
weight16_t w16[128] = {-0.937500, 0.203125, 1.578125, -0.203125, -0.171875, -0.312500, 0.078125, 1.984375, -1.296875, -0.171875, 1.687500, 0.281250, -0.156250, 0.312500, 1.593750, 0.343750, 0.375000, 0.406250, 1.000000, 0.609375, 0.640625, -0.828125, 1.984375, -0.734375, 0.781250, -0.171875, 0.875000, 0.265625, -0.125000, 0.156250, 1.359375, 1.312500, 1.468750, 1.171875, -1.031250, -0.546875, 0.562500, -0.296875, 1.765625, -0.109375, 0.546875, 0.015625, 1.546875, -0.125000, 1.093750, 0.421875, 0.000000, 0.546875, -1.593750, 0.515625, 1.437500, -0.062500, 1.250000, 0.218750, 0.343750, 0.546875, -0.937500, 1.265625, 1.593750, -0.703125, 0.093750, -0.125000, -0.187500, 1.875000, 1.515625, 0.093750, -0.718750, 0.375000, 0.484375, 1.234375, 0.328125, -0.890625, 0.109375, 0.937500, 1.218750, 0.000000, 0.265625, 1.984375, -0.156250, -1.640625, -0.093750, 0.187500, 0.437500, 1.781250, 1.984375, -0.078125, -1.734375, 0.171875, 1.984375, 0.359375, -1.984375, -0.171875, 1.500000, -0.875000, -0.593750, 0.906250, 0.109375, 0.125000, 0.390625, 1.875000, 0.328125, 1.984375, 0.031250, -1.328125, -1.609375, -0.312500, 1.984375, 0.265625, -0.015625, -0.281250, -0.250000, 1.984375, 0.125000, -0.046875, 1.984375, -0.453125, 1.062500, 0.546875, -1.343750, 1.296875, 1.234375, -0.250000, 0.046875, 0.593750, -0.140625, 1.906250, 0.203125, 1.031250};
#endif

#endif
