//Numpy array shape [5, 5, 1, 4]
//Min -1.125000000000
//Max 0.609375000000
//Number of zeros 1

#ifndef W4_H_
#define W4_H_

#ifndef __SYNTHESIS__
weight4_t w4[100];
#else
weight4_t w4[100] = {-0.234375, -0.218750, -0.656250, 0.171875, -1.125000, -0.390625, -0.296875, 0.093750, 0.140625, 0.296875, 0.187500, -0.328125, -0.406250, -0.687500, 0.328125, -0.250000, -0.296875, 0.093750, 0.156250, 0.203125, -0.125000, -0.062500, -0.281250, 0.000000, 0.156250, -0.109375, 0.375000, -0.109375, -0.062500, 0.421875, 0.187500, -0.093750, 0.453125, -0.062500, 0.390625, 0.421875, 0.421875, 0.500000, 0.500000, 0.453125, -0.234375, -0.156250, -0.140625, 0.500000, 0.296875, -0.156250, -0.156250, -0.156250, -0.265625, 0.125000, -0.500000, -0.187500, 0.156250, 0.109375, -0.562500, 0.250000, -0.265625, 0.140625, 0.156250, -0.390625, -0.156250, 0.187500, 0.140625, 0.156250, -0.453125, 0.390625, -0.390625, 0.390625, -0.406250, 0.453125, -0.468750, 0.578125, -0.500000, -0.562500, 0.250000, -0.390625, 0.171875, -0.203125, 0.140625, 0.218750, 0.156250, 0.203125, -0.640625, 0.171875, 0.250000, 0.468750, 0.609375, 0.406250, 0.343750, 0.515625, -0.328125, 0.109375, -0.625000, -0.359375, -0.265625, -0.437500, -0.359375, -0.468750, -0.187500, 0.203125};
#endif

#endif
